import type { DistilledExpertMetadata, DistilledExpertNetwork } from "./types.js";

export const DISTILLED_EXPERT_METADATA: DistilledExpertMetadata = {
  "algorithm": "Distilled Expert Net",
  "boardSizes": [
    "12x12",
    "16x16"
  ],
  "collectedSamples": 38018,
  "confidenceThreshold": 0.7,
  "episodesPerSize": 24,
  "fallbackEvaluationScore": 41.562,
  "featureDescription": [
    "rotated_local_5x5_window_one_hot",
    "normalized_rotated_food_delta",
    "relative_safe_moves",
    "snake_length_ratio"
  ],
  "hiddenSizes": [
    128,
    64
  ],
  "seed": 11,
  "teacherEvaluationScore": 58.834,
  "trainingAccuracy": 0.9032,
  "validationAccuracy": 0.9032
};

export const DISTILLED_EXPERT_NETWORK: DistilledExpertNetwork = {
  "featureSize": 106,
  "layers": [
    {
      "bias": [
        0.046372,
        0.124137,
        0.015136,
        0.053255,
        0.039138,
        -0.053614,
        0.076656,
        0.029937,
        -0.032873,
        0.035085,
        0.043133,
        -0.051206,
        0.07786,
        0.018731,
        -0.00056,
        0.060408,
        0.016132,
        0.072405,
        0.058516,
        -0.05087,
        -0.055922,
        0.043384,
        -0.051903,
        0.007084,
        -0.003195,
        -0.006866,
        0.04559,
        -0.052336,
        0.0901,
        0.093618,
        -0.102601,
        0.05076,
        0.111864,
        0.016427,
        0.065009,
        -0.05408,
        0.083751,
        0.105827,
        -0.074427,
        -0.02599,
        -0.073354,
        0.016664,
        0.054868,
        0.09506,
        0.007328,
        0.023693,
        0.060914,
        -0.020776,
        -0.054854,
        5e-05,
        0.085069,
        -0.099481,
        0.007984,
        0.015795,
        0.020175,
        0.026871,
        0.051752,
        -0.095562,
        0.049149,
        0.099202,
        -0.032193,
        -0.018237,
        0.04315,
        0.098685,
        0.079643,
        0.099463,
        0.012887,
        0.016955,
        0.059589,
        0.085655,
        -0.005559,
        0.016246,
        -0.043637,
        0.012441,
        0.095313,
        0.053373,
        0.121522,
        0.005118,
        -0.02311,
        0.046588,
        -0.027275,
        0.093667,
        0.076264,
        0.05613,
        0.074288,
        0.039695,
        0.014931,
        0.039333,
        0.041842,
        0.05058,
        0.06014,
        0.081351,
        0.034848,
        0.086939,
        0.005792,
        0.02764,
        -0.031083,
        -0.013264,
        0.051769,
        -0.025535,
        -0.074941,
        -0.062668,
        -0.059206,
        -0.021983,
        0.026886,
        -0.062645,
        0.110124,
        -0.016109,
        -0.028889,
        -0.005643,
        0.061115,
        0.01966,
        0.020628,
        0.102042,
        -0.030861,
        -0.014315,
        0.01319,
        0.053199,
        0.053201,
        0.105675,
        -0.104632,
        0.090918,
        0.092605,
        0.040311,
        -0.076234,
        0.023078,
        -0.04556,
        0.095107
      ],
      "weights": [
        [
          -0.050927,
          -0.075839,
          0.146087,
          -0.064415,
          0.072911,
          -0.037361,
          0.065106,
          -0.072179,
          0.034242,
          0.046034,
          0.046385,
          0.054869,
          -0.003027,
          -0.043384,
          0.076845,
          0.000471,
          -0.042194,
          -0.004357,
          0.067496,
          0.051536,
          0.052285,
          0.002935,
          0.147013,
          0.015934,
          0.09203,
          -0.109524,
          0.11408,
          -0.011178,
          -0.074439,
          -0.062775,
          0.182017,
          -0.065538,
          -0.050051,
          -0.112425,
          0.208414,
          -0.082316,
          0.099393,
          -0.106909,
          0.039267,
          -0.012002,
          -0.042107,
          -0.041779,
          -0.149343,
          -0.059531,
          0.007767,
          0.004098,
          -0.163423,
          -0.053149,
          0.016565,
          -0.061175,
          -0.001553,
          0.046747,
          0.000883,
          -0.009194,
          0.088161,
          0.034033,
          -0.046426,
          0.003107,
          0.146053,
          -0.000848,
          0.060928,
          -0.067219,
          -0.109475,
          -0.044105,
          0.113738,
          0.068864,
          -0.147659,
          0.036473,
          -0.017433,
          0.032723,
          0.091342,
          -0.094033,
          0.026239,
          0.019876,
          -0.036781,
          -0.058149,
          -0.016228,
          -0.053314,
          0.10179,
          0.086764,
          -0.048315,
          -0.068645,
          -0.109309,
          -0.053602,
          0.123056,
          0.037399,
          -0.028881,
          -0.008287,
          -0.098761,
          0.017767,
          -0.068567,
          0.001081,
          -0.047188,
          0.006603,
          0.054359,
          0.095912,
          0.066166,
          -0.084813,
          0.131869,
          0.063182,
          0.199563,
          0.214284,
          0.05769,
          -0.077308,
          -0.054333,
          -0.050151
        ],
        [
          0.047914,
          -0.070026,
          0.076638,
          -0.026237,
          -0.088475,
          0.017671,
          0.042325,
          0.086701,
          -0.083968,
          0.097271,
          0.136859,
          0.095131,
          0.005537,
          -0.040924,
          0.037427,
          0.037594,
          0.062898,
          -0.007024,
          0.106069,
          -0.006842,
          0.074328,
          -0.060116,
          0.042746,
          0.018232,
          0.036246,
          0.118768,
          -0.023345,
          0.019393,
          -0.010166,
          -0.03824,
          0.061729,
          -0.022392,
          -0.060109,
          -0.011441,
          0.01161,
          0.063503,
          0.096889,
          0.033197,
          0.015961,
          -0.030674,
          0.04707,
          0.079696,
          0.128248,
          -0.037753,
          0.015851,
          0.186762,
          0.016292,
          -0.02756,
          -0.058178,
          -0.040015,
          0.087785,
          0.082589,
          0.048415,
          0.018411,
          -0.044729,
          0.030948,
          0.00555,
          0.008925,
          -0.129469,
          0.007801,
          -0.034398,
          -0.049823,
          -0.015507,
          0.056329,
          -0.050233,
          0.024517,
          0.016085,
          0.009029,
          -0.047092,
          0.08115,
          0.089072,
          -0.058348,
          -0.028287,
          0.045906,
          0.014698,
          0.094395,
          -0.043512,
          0.081427,
          -0.107843,
          -0.047803,
          0.030439,
          -0.053333,
          0.03755,
          -0.009213,
          -0.072148,
          -0.052734,
          0.074177,
          -0.010476,
          0.031815,
          0.055514,
          0.011758,
          -0.049801,
          0.023658,
          -0.063922,
          -0.070436,
          -0.011068,
          0.084057,
          0.063087,
          -0.111965,
          0.060268,
          0.072773,
          -0.061315,
          -0.048034,
          0.141895,
          -0.0233,
          0.037045
        ],
        [
          -0.107779,
          0.101878,
          0.061133,
          -0.0745,
          0.068491,
          -0.02654,
          0.023112,
          0.054907,
          -0.032232,
          0.029876,
          -0.091402,
          -0.092231,
          0.060913,
          -0.09945,
          -0.064269,
          0.020213,
          -0.017244,
          0.017271,
          -0.079255,
          0.073531,
          0.038682,
          0.078913,
          0.051414,
          0.091218,
          -0.016318,
          -0.084884,
          -0.031922,
          -0.016366,
          0.11743,
          0.064268,
          -0.056898,
          -0.002651,
          -0.043049,
          -0.132487,
          0.119992,
          0.000185,
          -0.039575,
          -0.021329,
          -0.137084,
          0.014789,
          0.036664,
          -0.004944,
          -0.148812,
          -0.093762,
          -0.012257,
          -0.279751,
          -0.120459,
          -0.006707,
          -0.055272,
          0.086117,
          0.004731,
          0.057504,
          -0.041597,
          -0.069353,
          0.306109,
          -0.038595,
          -0.049953,
          0.121673,
          0.193046,
          -0.072444,
          -0.031975,
          0.074895,
          -0.149276,
          0.026858,
          -0.012415,
          -0.111605,
          -0.084759,
          0.033336,
          -0.010763,
          0.06522,
          0.025263,
          0.028415,
          0.050923,
          0.045887,
          0.029694,
          0.037551,
          -0.030748,
          -0.058548,
          0.129081,
          -0.088562,
          -0.024316,
          0.148469,
          -0.045236,
          0.04746,
          -0.137059,
          -0.014719,
          -0.009318,
          0.025084,
          -0.008048,
          -0.073173,
          -0.045148,
          -0.066794,
          -0.028706,
          0.145124,
          0.10367,
          -0.049959,
          0.014907,
          -0.130494,
          0.115764,
          -0.036472,
          0.128677,
          0.076195,
          -0.000241,
          0.010134,
          0.043322,
          0.010683
        ],
        [
          0.050716,
          -0.019146,
          -0.017307,
          -0.058274,
          0.050354,
          -0.092265,
          -0.002185,
          0.016357,
          -0.041637,
          -0.04908,
          0.131712,
          -0.005243,
          0.057153,
          0.079225,
          0.002795,
          -0.094788,
          -0.024307,
          0.035095,
          -0.006587,
          -0.066246,
          -0.006419,
          0.09308,
          -0.004265,
          0.00846,
          0.054056,
          -0.016296,
          -0.025443,
          0.064028,
          -0.101359,
          -0.111193,
          0.068396,
          0.051208,
          0.058622,
          -0.025802,
          0.046684,
          -0.004271,
          -0.013914,
          0.062955,
          0.05021,
          -0.03825,
          0.088242,
          -0.055705,
          -0.069206,
          -0.010835,
          0.07675,
          0.014034,
          0.021602,
          -0.030155,
          -0.028671,
          0.062927,
          -0.000609,
          0.112789,
          0.077567,
          0.155006,
          0.037879,
          -0.073008,
          -0.038694,
          0.099728,
          0.126846,
          0.049473,
          -0.010418,
          0.04762,
          -0.031769,
          -0.056763,
          0.039875,
          -0.002825,
          -0.060343,
          0.029651,
          0.01854,
          0.013521,
          -0.004275,
          0.082457,
          -0.065247,
          0.113398,
          0.005164,
          0.026327,
          0.030063,
          -0.01586,
          -0.010931,
          0.078787,
          -0.044786,
          0.017854,
          -0.001666,
          -0.096746,
          -0.047341,
          0.027395,
          -0.161384,
          -0.025943,
          0.014788,
          0.081727,
          0.007899,
          -0.052206,
          0.01516,
          -0.018983,
          -0.034765,
          0.027496,
          0.120551,
          0.06444,
          0.035021,
          0.025433,
          0.005579,
          -0.01409,
          -0.085335,
          -0.064956,
          0.149051,
          0.065993
        ],
        [
          -0.085394,
          0.060887,
          0.120121,
          -0.042918,
          0.059047,
          0.024408,
          -0.023673,
          -0.078845,
          -0.047479,
          -0.048977,
          0.114862,
          -0.080934,
          0.006326,
          -0.069158,
          -0.01659,
          -0.028563,
          0.005671,
          0.01141,
          -0.012227,
          -0.030948,
          0.081415,
          0.066436,
          0.060877,
          -0.075372,
          -0.032904,
          0.073743,
          0.047394,
          -0.005118,
          0.002492,
          -0.144765,
          0.019637,
          -0.058724,
          -0.041092,
          0.087014,
          0.085668,
          -0.059844,
          -0.043829,
          0.067514,
          0.036804,
          0.06683,
          0.027521,
          -0.029719,
          -0.152182,
          -0.002177,
          -0.035478,
          -0.020351,
          -0.173471,
          -0.01665,
          -0.087468,
          0.028159,
          0.062454,
          -0.027111,
          -0.04872,
          0.023195,
          -0.190728,
          -0.04101,
          -0.084746,
          0.105255,
          0.01508,
          -0.03173,
          0.081221,
          -0.019364,
          -0.044857,
          -0.081321,
          0.098747,
          0.057161,
          -0.136378,
          0.029599,
          0.02009,
          0.104206,
          0.016965,
          -0.086761,
          0.035522,
          -0.008486,
          -0.063317,
          0.025889,
          0.041366,
          -0.074051,
          -0.096264,
          -0.090872,
          -0.071178,
          0.069004,
          -0.024665,
          0.091806,
          0.065973,
          0.013778,
          0.013132,
          -0.078855,
          0.026837,
          0.011964,
          -0.057106,
          -0.012462,
          0.013682,
          0.009877,
          -0.011908,
          5.5e-05,
          0.073566,
          -0.003612,
          -0.083166,
          -0.000743,
          0.043173,
          -0.011697,
          0.159751,
          -0.123049,
          -0.078568,
          -0.048778
        ],
        [
          -0.005158,
          0.041251,
          0.120251,
          -0.023668,
          -0.052296,
          -0.096761,
          0.077138,
          -0.073179,
          0.043849,
          0.098383,
          0.051942,
          -0.091814,
          -0.003366,
          -0.005721,
          0.024299,
          -0.093004,
          -0.011202,
          -0.106502,
          0.048874,
          0.0823,
          0.095518,
          0.068982,
          0.056509,
          -0.004784,
          0.083505,
          -0.059385,
          0.027877,
          -0.042547,
          0.016579,
          -0.106456,
          0.13467,
          0.001542,
          0.023192,
          -0.087443,
          0.084394,
          0.087393,
          -0.000545,
          -0.098444,
          0.06634,
          0.094057,
          -0.004998,
          -0.118601,
          -0.002189,
          0.020642,
          0.031174,
          -0.052441,
          -0.114868,
          -0.03049,
          0.087758,
          -0.031496,
          -0.057277,
          0.052145,
          0.066945,
          -0.102068,
          0.112351,
          -0.034964,
          0.031201,
          -0.100386,
          -0.037397,
          -0.05916,
          -0.056503,
          0.018663,
          -0.043114,
          0.02644,
          0.09354,
          0.026941,
          -0.125021,
          0.02285,
          0.09249,
          0.016419,
          -0.034618,
          0.09431,
          -0.046002,
          -0.006555,
          0.016948,
          -0.024141,
          -0.070809,
          -0.022886,
          0.043086,
          0.066888,
          -0.004239,
          -0.040393,
          0.029558,
          0.062815,
          0.059108,
          0.02216,
          -0.057847,
          0.039693,
          -0.037312,
          0.047168,
          -0.023941,
          -0.033541,
          0.081827,
          -0.069683,
          0.03004,
          -0.093972,
          0.048106,
          -0.076857,
          0.04677,
          -0.033642,
          0.173969,
          0.052935,
          -0.021029,
          0.025114,
          0.048337,
          0.033848
        ],
        [
          0.033754,
          0.023072,
          0.072938,
          0.091403,
          0.049377,
          0.048179,
          -0.033081,
          0.020482,
          -0.041059,
          0.005095,
          0.141422,
          -0.082306,
          0.065835,
          -0.125297,
          0.092317,
          -0.070086,
          -0.068712,
          0.018135,
          -0.0086,
          -0.058592,
          0.01554,
          -0.032812,
          0.105635,
          -0.085416,
          -0.009427,
          0.023254,
          0.036123,
          -0.036698,
          -0.039885,
          -0.04415,
          0.054484,
          -0.069684,
          0.070329,
          -0.03898,
          0.042522,
          0.080291,
          -0.032803,
          -0.025121,
          0.131507,
          -0.023165,
          -0.005824,
          -0.030411,
          0.045126,
          -0.067692,
          0.064768,
          -0.021457,
          0.011907,
          0.07495,
          -0.06791,
          -0.072456,
          -0.088755,
          0.00436,
          0.104827,
          -0.075469,
          -0.144789,
          0.016042,
          -0.020613,
          -0.010454,
          -0.215626,
          0.077484,
          0.0377,
          -0.06487,
          0.107946,
          -0.009575,
          0.036067,
          -0.094088,
          -0.058437,
          0.054628,
          -0.084868,
          0.038972,
          0.084628,
          -0.045238,
          -0.030056,
          -0.053259,
          -0.176854,
          -0.085484,
          0.064508,
          -0.02848,
          -0.066399,
          0.007727,
          -0.025279,
          -0.021961,
          -0.060761,
          -0.085576,
          0.020198,
          0.05357,
          0.080391,
          0.064668,
          -0.025488,
          -0.033173,
          -0.03173,
          -0.009553,
          0.094988,
          -0.053068,
          -0.132916,
          0.014687,
          -0.017471,
          0.002055,
          -0.056753,
          0.021666,
          0.163522,
          -0.115,
          0.117592,
          -0.038068,
          -0.002896,
          0.05251
        ],
        [
          -0.085891,
          0.103496,
          -0.010029,
          0.03627,
          -0.072305,
          0.08236,
          0.012564,
          -0.05158,
          -0.034289,
          0.153358,
          -0.227805,
          -0.01305,
          -0.04677,
          0.11137,
          -0.085829,
          0.040753,
          -0.024337,
          -0.027008,
          0.045482,
          0.07783,
          -0.081002,
          -0.152436,
          -0.197189,
          -0.061538,
          0.041703,
          -0.029389,
          -0.092028,
          -0.037182,
          -0.052314,
          -0.142154,
          -0.009303,
          -0.050093,
          -0.06851,
          0.070974,
          -0.186324,
          -0.055858,
          -0.023282,
          -0.165757,
          0.057652,
          -0.093111,
          -0.021836,
          0.09819,
          0.353759,
          0.043147,
          -0.111779,
          -0.057538,
          -0.004289,
          0.009056,
          -0.048905,
          -0.095308,
          0.074148,
          -0.046453,
          0.005209,
          0.072504,
          -0.124595,
          0.08711,
          -0.05949,
          0.027512,
          -0.190635,
          0.011477,
          0.011129,
          -0.085009,
          -0.044744,
          -0.016033,
          -0.097099,
          -0.020283,
          -0.160092,
          0.001962,
          0.076254,
          -0.035521,
          -0.052147,
          -0.068838,
          -0.040357,
          0.109619,
          0.041427,
          -0.074509,
          -0.135228,
          -0.131491,
          -0.141377,
          0.025144,
          0.011369,
          0.020302,
          0.205266,
          0.02152,
          -0.01989,
          -0.068626,
          -0.111208,
          0.050859,
          0.02267,
          0.049414,
          -0.028212,
          -0.075982,
          0.09095,
          0.015679,
          -0.045617,
          0.018041,
          0.080991,
          0.037859,
          -0.084995,
          -0.056408,
          0.124656,
          0.084077,
          0.060704,
          -0.01662,
          -0.080827,
          -0.012627
        ],
        [
          -0.03703,
          0.126979,
          0.077267,
          0.002743,
          -0.011064,
          0.096253,
          -0.090757,
          0.023055,
          -0.047111,
          0.098347,
          0.053906,
          0.062784,
          0.038686,
          -0.06101,
          0.00655,
          -0.075438,
          0.01811,
          -0.12664,
          -0.007079,
          0.014491,
          -0.046269,
          0.175034,
          -0.024453,
          -0.076263,
          -0.157805,
          0.159388,
          0.222643,
          -0.014655,
          -0.119739,
          0.164493,
          -0.084143,
          -0.005709,
          0.036069,
          -0.047932,
          0.188539,
          0.086355,
          0.087452,
          -0.064072,
          -0.001497,
          0.010731,
          -0.019271,
          0.052915,
          -0.0557,
          0.016477,
          0.092876,
          0.127336,
          -0.058948,
          0.036036,
          0.042935,
          0.073414,
          -0.026848,
          -0.056156,
          -0.002159,
          -0.105857,
          0.116709,
          -0.094618,
          0.048292,
          0.013135,
          -0.123218,
          -0.076754,
          0.055137,
          0.104148,
          0.036859,
          0.004821,
          0.036707,
          0.190829,
          -0.078652,
          -0.063491,
          0.068366,
          0.049306,
          0.069522,
          -0.022194,
          -0.005874,
          0.04804,
          -0.068413,
          -0.043482,
          -0.000543,
          0.02352,
          0.127861,
          -0.04397,
          -0.067394,
          -0.036006,
          0.066115,
          -0.084082,
          0.030728,
          0.015242,
          0.028138,
          0.008314,
          0.037368,
          0.062288,
          0.062172,
          0.002696,
          -0.057698,
          -0.020794,
          -0.100287,
          -0.044818,
          -0.02496,
          0.036538,
          0.007927,
          0.07779,
          -0.153564,
          -0.161843,
          0.108603,
          -0.255931,
          0.059489,
          0.146371
        ],
        [
          -0.045053,
          0.093395,
          0.004957,
          -0.0968,
          -0.043104,
          0.103948,
          -0.132451,
          -0.075436,
          0.097056,
          0.138977,
          0.05151,
          -0.05978,
          0.005121,
          0.0705,
          0.07965,
          -0.031374,
          -0.034174,
          -0.008358,
          -0.012335,
          -0.054045,
          0.022512,
          0.039255,
          0.111946,
          0.088887,
          0.04691,
          -0.010575,
          0.140217,
          0.039804,
          -0.052424,
          0.126649,
          -0.053748,
          0.046029,
          0.010356,
          -0.044049,
          -0.067413,
          -0.05831,
          -0.046902,
          0.094021,
          0.004426,
          0.057347,
          -0.041901,
          0.08438,
          -0.026809,
          -0.012418,
          0.071182,
          0.046142,
          -0.040566,
          0.011042,
          0.062351,
          0.070311,
          0.055372,
          -0.041187,
          0.043066,
          -0.056684,
          -0.215332,
          0.091718,
          -0.013173,
          0.088423,
          -0.171988,
          -0.073605,
          -0.003583,
          0.049477,
          0.032667,
          -0.022829,
          0.02716,
          -0.064332,
          -0.080636,
          0.011178,
          0.026737,
          -0.042565,
          0.081237,
          0.015347,
          -0.033507,
          -0.039149,
          -0.059626,
          0.063217,
          0.050843,
          0.05737,
          -0.054856,
          -0.013165,
          0.085731,
          -0.015626,
          -0.045415,
          -0.082177,
          -0.057602,
          0.016089,
          -0.026733,
          -0.00835,
          -0.014504,
          0.061895,
          -0.064459,
          -0.013904,
          -0.075555,
          0.12037,
          0.002002,
          0.065821,
          0.007753,
          0.039564,
          0.073821,
          0.016982,
          -0.257146,
          -0.000692,
          0.181165,
          -0.103769,
          -0.116796,
          0.148225
        ],
        [
          -0.019898,
          -0.036218,
          0.109317,
          0.090912,
          -0.02366,
          0.005496,
          -0.049591,
          -0.074483,
          -0.100926,
          0.108986,
          0.130893,
          -0.093932,
          0.049736,
          0.014364,
          -0.038689,
          0.01287,
          -0.061951,
          -0.077758,
          0.00893,
          0.087087,
          -0.035626,
          0.056705,
          -0.014063,
          0.081736,
          -0.085355,
          -0.068121,
          0.117455,
          -0.036734,
          0.009949,
          0.059702,
          0.132789,
          0.039536,
          0.059764,
          -0.036534,
          0.12826,
          0.063725,
          0.000546,
          -0.050469,
          0.099279,
          -0.084019,
          0.049925,
          0.033413,
          -0.087794,
          -0.085952,
          0.080938,
          0.060517,
          -0.008419,
          -0.012054,
          -0.051065,
          0.04348,
          0.050805,
          0.051519,
          -0.043097,
          -0.071363,
          -0.080451,
          -0.033415,
          0.02596,
          -0.1228,
          -0.087995,
          -0.051576,
          -0.031611,
          -0.027113,
          0.01995,
          0.060218,
          0.032152,
          -0.07776,
          -0.126353,
          0.090436,
          -0.019935,
          -0.067467,
          -0.035237,
          -0.006629,
          0.051007,
          -0.075641,
          -0.041652,
          0.086222,
          0.023022,
          0.074672,
          -0.128999,
          0.057797,
          0.075048,
          0.101558,
          -0.051879,
          0.017046,
          -0.005489,
          0.040631,
          0.030086,
          0.021475,
          0.112522,
          0.107917,
          -0.065402,
          -0.021989,
          0.044826,
          -0.075549,
          -0.022046,
          0.060147,
          0.088226,
          0.02719,
          -0.069779,
          0.091157,
          0.077088,
          -0.124448,
          0.072931,
          -0.107346,
          0.067539,
          0.061852
        ],
        [
          0.026613,
          -0.039883,
          0.044315,
          -0.077111,
          -0.100228,
          -0.071849,
          -0.092731,
          0.012773,
          0.016762,
          0.102019,
          -0.06941,
          -0.047985,
          0.017269,
          -0.074029,
          -0.036329,
          -0.056302,
          -0.013539,
          -0.000308,
          -0.00132,
          0.091912,
          -0.029269,
          -0.012573,
          0.075186,
          0.047308,
          -0.050533,
          0.083336,
          -0.076008,
          0.059818,
          -0.028145,
          0.069294,
          -0.015292,
          -0.013814,
          -0.037468,
          -0.011176,
          -0.015664,
          -0.006533,
          -0.061253,
          0.010557,
          -0.067718,
          0.089942,
          0.062279,
          0.052928,
          0.085166,
          0.086554,
          0.097452,
          -0.044644,
          -0.016059,
          0.06635,
          -0.055228,
          0.051237,
          0.01768,
          0.062274,
          0.013512,
          0.138522,
          -0.084911,
          -0.067294,
          0.06213,
          -0.034349,
          0.038692,
          -0.034892,
          0.069119,
          -0.006023,
          0.013182,
          0.06363,
          0.039354,
          0.113473,
          0.168997,
          -0.009275,
          0.066908,
          -0.028475,
          0.096382,
          0.070798,
          0.091592,
          -0.001173,
          -0.040932,
          0.024047,
          0.023683,
          -0.093673,
          -0.030333,
          0.003211,
          -0.053435,
          -0.034957,
          0.02491,
          0.088928,
          -0.055153,
          0.022943,
          0.089739,
          -0.053915,
          -0.030298,
          0.078915,
          -0.105136,
          0.003096,
          -0.00013,
          0.04643,
          0.002773,
          0.070465,
          0.007484,
          0.016161,
          0.005842,
          -0.096616,
          -0.34856,
          0.194761,
          -0.042759,
          0.036117,
          -0.194869,
          0.013959
        ],
        [
          0.048833,
          0.025241,
          0.160972,
          0.078633,
          -0.053035,
          0.021784,
          0.133351,
          0.073049,
          -0.05697,
          -0.08912,
          0.124944,
          -0.076614,
          0.116092,
          -0.187457,
          0.134517,
          0.016022,
          -0.0115,
          0.056235,
          0.093926,
          -0.087727,
          -0.054866,
          0.019968,
          0.111996,
          0.081702,
          0.029338,
          0.016246,
          0.107753,
          -0.039645,
          -0.030547,
          -0.201482,
          0.146142,
          -0.054553,
          -0.002137,
          -0.104492,
          0.122204,
          0.034885,
          0.068932,
          -0.050804,
          0.024372,
          0.037505,
          0.030983,
          0.047809,
          -0.073366,
          -0.00163,
          -0.088799,
          0.0248,
          -0.217835,
          -0.096528,
          -0.085017,
          0.052457,
          -0.068186,
          0.062526,
          0.030829,
          -0.070677,
          -0.109334,
          -0.044845,
          -0.014526,
          0.026188,
          -0.161968,
          0.078396,
          0.03727,
          -0.005993,
          -0.034358,
          0.076551,
          -0.031386,
          0.021163,
          -0.162152,
          0.092143,
          0.064588,
          0.007101,
          0.010895,
          -0.0432,
          0.01851,
          0.092904,
          -0.064243,
          0.021301,
          -0.042595,
          0.021808,
          -0.104216,
          0.002464,
          0.036586,
          -0.067787,
          -0.024509,
          -0.043774,
          0.040511,
          0.077783,
          -0.02021,
          -0.007923,
          -0.041724,
          0.065529,
          0.041692,
          -0.021949,
          0.047583,
          -0.066736,
          -0.06196,
          0.013762,
          0.00196,
          0.053904,
          -0.083174,
          0.010824,
          0.282386,
          -0.123969,
          -3.1e-05,
          -0.024396,
          -0.098177,
          -0.008188
        ],
        [
          -0.050258,
          -0.13718,
          0.037526,
          0.081575,
          -0.038788,
          -0.065595,
          0.037644,
          0.008235,
          0.073851,
          0.083931,
          0.048722,
          -0.017104,
          0.012698,
          -0.002273,
          0.037934,
          0.016452,
          -0.097003,
          -0.092024,
          -0.053054,
          0.068175,
          -0.048613,
          -0.137014,
          0.137588,
          -0.073377,
          -0.010871,
          -0.010354,
          0.038216,
          -0.073835,
          -0.150312,
          -0.029431,
          0.148384,
          -0.058562,
          -0.118677,
          -0.074735,
          0.15643,
          -0.092635,
          0.066942,
          -0.0136,
          0.078519,
          -0.070253,
          0.021198,
          -0.06324,
          -0.112817,
          0.086269,
          0.048839,
          0.042727,
          -0.065863,
          0.066356,
          0.079705,
          -0.035149,
          -0.022879,
          0.065622,
          0.08644,
          0.0417,
          -0.170336,
          0.0292,
          0.048022,
          -0.029115,
          -0.169606,
          -0.077245,
          -0.060848,
          -0.106248,
          -0.102464,
          0.065713,
          0.102788,
          -0.023124,
          -0.119903,
          0.095488,
          -0.078921,
          -0.066295,
          0.029637,
          0.010073,
          -0.06804,
          0.003652,
          -0.035749,
          -0.077593,
          0.000787,
          -0.051813,
          -0.065699,
          0.057844,
          -0.001696,
          0.029305,
          0.010383,
          0.037748,
          -0.00885,
          -0.072536,
          0.022238,
          0.024498,
          0.059722,
          0.059024,
          -0.012182,
          0.034332,
          0.007573,
          -0.097211,
          -0.060343,
          -0.08649,
          0.0786,
          0.033766,
          -0.033991,
          0.055225,
          0.121457,
          0.177717,
          -0.010704,
          -0.032256,
          0.001398,
          -0.045179
        ],
        [
          -0.04754,
          -0.088613,
          -0.043999,
          -0.02721,
          0.038246,
          -0.20091,
          -0.039042,
          -0.0078,
          -0.083029,
          -0.247557,
          -0.000571,
          -0.052995,
          -0.025613,
          -0.166852,
          -0.077177,
          -0.001951,
          0.044771,
          -0.195979,
          0.033132,
          0.069098,
          -0.01474,
          0.087176,
          -0.054781,
          -0.049267,
          0.011919,
          0.088993,
          -0.072835,
          -0.015356,
          0.088206,
          0.183138,
          -0.207047,
          0.009488,
          0.048336,
          0.09625,
          -0.151743,
          -0.00817,
          0.074294,
          0.00467,
          -0.124496,
          -0.021773,
          0.028673,
          0.029897,
          0.290174,
          0.035595,
          0.021132,
          0.002656,
          0.234666,
          -0.002876,
          0.056186,
          0.075176,
          0.073285,
          0.051442,
          -0.013852,
          -0.135704,
          0.199577,
          -0.095672,
          -0.098608,
          0.032362,
          0.163966,
          0.014844,
          -0.000873,
          -0.046463,
          0.069384,
          -0.017884,
          -0.087467,
          0.037378,
          0.059986,
          -0.069966,
          -0.06464,
          0.059053,
          -0.096857,
          -0.01073,
          -0.095779,
          -0.034359,
          0.164229,
          0.035407,
          -0.019083,
          -0.054421,
          0.079138,
          0.033305,
          0.118949,
          0.009,
          -0.071449,
          -0.016823,
          0.01874,
          0.073398,
          -0.062083,
          -0.062765,
          -0.009873,
          0.068824,
          -0.002065,
          0.012811,
          0.09305,
          -0.003964,
          -0.005289,
          -0.072074,
          -0.006011,
          0.031504,
          0.003326,
          -0.013025,
          -0.047863,
          0.043951,
          -0.092337,
          0.099249,
          -0.004629,
          0.01047
        ],
        [
          -0.064487,
          -0.161121,
          0.100868,
          -0.014658,
          0.082972,
          -0.038534,
          -0.109292,
          -0.004016,
          -0.014349,
          -0.006938,
          0.009433,
          0.061901,
          -0.032923,
          0.12504,
          -0.01297,
          0.019288,
          0.047659,
          0.027684,
          -0.004703,
          0.005116,
          -0.048106,
          0.044402,
          -0.020501,
          0.018274,
          -0.001443,
          -0.070292,
          0.004175,
          0.048002,
          -0.132002,
          0.041623,
          0.121728,
          0.059601,
          0.041934,
          0.026703,
          -0.018716,
          0.034077,
          0.076088,
          0.164741,
          0.174612,
          0.050669,
          0.084271,
          0.012219,
          -0.057041,
          -0.033567,
          0.034718,
          -0.073452,
          -0.132107,
          -0.020247,
          0.06465,
          0.003722,
          -0.035466,
          -0.056344,
          0.081966,
          0.089869,
          -0.067111,
          -0.047768,
          0.087568,
          0.108426,
          0.002178,
          0.096933,
          0.054159,
          0.043368,
          0.027585,
          -0.002728,
          -0.038701,
          -0.023677,
          0.009492,
          -0.056162,
          -0.089558,
          -0.011991,
          -0.001523,
          -0.016451,
          0.013018,
          0.091838,
          -0.052111,
          0.08814,
          0.052181,
          0.087186,
          -0.021887,
          -0.044849,
          -0.040239,
          -0.004167,
          -0.060929,
          0.091733,
          -0.081971,
          0.001059,
          -0.057831,
          0.02888,
          0.04775,
          -0.000962,
          -0.010097,
          -0.017146,
          -0.071368,
          -0.0325,
          0.048083,
          -0.074571,
          0.080801,
          -0.058829,
          0.039667,
          0.090639,
          -0.106617,
          0.188514,
          0.123016,
          -0.035565,
          -0.166605,
          0.060767
        ],
        [
          -0.040286,
          -0.024539,
          -0.051394,
          -0.082022,
          0.064028,
          0.039296,
          -0.103255,
          0.07577,
          0.155304,
          -0.179871,
          -0.044158,
          -0.041136,
          0.104486,
          -0.049313,
          -0.120489,
          0.033729,
          -0.004494,
          -0.063322,
          -0.067112,
          -0.040036,
          0.068322,
          -0.110624,
          -0.004499,
          -0.0057,
          0.036468,
          -0.213516,
          -0.058966,
          -0.063919,
          0.262057,
          -0.160208,
          -0.037953,
          0.036944,
          0.099503,
          -0.237941,
          -0.109881,
          -0.009709,
          0.013318,
          -0.255181,
          -0.051822,
          -0.0227,
          0.078455,
          -0.078645,
          0.161092,
          0.070342,
          0.048749,
          -0.163101,
          0.191484,
          0.076169,
          -0.066866,
          0.0416,
          -0.020659,
          -0.053321,
          0.005959,
          -0.140455,
          0.345455,
          -0.08687,
          -0.031247,
          0.043018,
          0.360252,
          0.077935,
          -0.063575,
          -0.021855,
          0.10608,
          0.051987,
          -0.037029,
          -0.032412,
          0.0873,
          0.022031,
          -0.045402,
          0.070517,
          -0.075822,
          0.019195,
          0.042773,
          -0.028159,
          0.010992,
          0.09154,
          0.063171,
          -0.038781,
          0.232041,
          0.090175,
          -0.064522,
          0.028561,
          0.021376,
          -0.038604,
          -0.083306,
          -0.037928,
          -0.092079,
          0.080001,
          -0.056591,
          -0.003012,
          0.051586,
          0.006855,
          0.04392,
          -0.03831,
          0.181647,
          -0.02248,
          -0.07442,
          0.085818,
          0.185579,
          -0.038788,
          -0.124823,
          0.156251,
          0.04308,
          0.031792,
          0.016148,
          -0.053758
        ],
        [
          -0.058435,
          -0.047086,
          0.089897,
          0.056616,
          -0.10881,
          0.08299,
          0.110259,
          -0.013596,
          -0.133613,
          0.080131,
          0.048041,
          0.072132,
          0.03602,
          0.032807,
          0.050651,
          -0.02321,
          -0.031953,
          -0.022802,
          -0.023783,
          -0.079853,
          0.052827,
          0.007804,
          -0.030094,
          -0.012799,
          -0.01638,
          -0.0903,
          0.120753,
          0.095966,
          0.007228,
          -0.062873,
          0.103374,
          -0.049443,
          0.035613,
          0.048102,
          0.065346,
          0.003352,
          -0.080988,
          -0.059803,
          -0.020574,
          0.062861,
          -0.064243,
          0.055395,
          -0.104858,
          0.050675,
          -0.075612,
          0.056003,
          -0.134604,
          -0.045532,
          -0.033798,
          -0.017855,
          -0.032917,
          -0.064618,
          -0.018514,
          0.004255,
          -0.150481,
          0.002273,
          0.067496,
          0.070647,
          -0.07809,
          0.006258,
          -0.095124,
          0.113862,
          -0.101869,
          0.042173,
          0.003621,
          0.065189,
          -0.136705,
          0.024587,
          -0.057231,
          0.044142,
          0.017018,
          -0.075212,
          0.104921,
          -0.059764,
          -0.123899,
          -0.045432,
          -0.062949,
          0.087909,
          0.066088,
          0.088441,
          0.086042,
          0.104992,
          -0.108511,
          -0.051301,
          0.056548,
          -0.045101,
          0.044445,
          -0.072343,
          -0.060113,
          0.030093,
          -0.025414,
          -0.070053,
          -0.060587,
          0.020179,
          0.031407,
          0.043304,
          0.031108,
          -0.020892,
          0.01019,
          -0.019217,
          0.111076,
          0.00808,
          0.040141,
          -0.101567,
          0.080538,
          0.047622
        ],
        [
          0.078142,
          0.041896,
          0.055732,
          -0.049381,
          -0.016576,
          -0.053669,
          0.037326,
          0.011523,
          -0.039864,
          0.043439,
          0.142292,
          0.082071,
          0.046124,
          -0.17578,
          0.031578,
          0.025119,
          -0.002391,
          0.098336,
          0.199852,
          -0.053208,
          0.032416,
          -0.069228,
          0.027561,
          0.033684,
          0.009752,
          -0.054439,
          0.045801,
          -0.0459,
          0.043098,
          -0.177427,
          0.127646,
          -0.021287,
          -0.003376,
          -0.205878,
          0.075712,
          -0.009498,
          -0.027723,
          0.066485,
          0.064716,
          0.051457,
          -0.08421,
          0.157488,
          0.264955,
          0.057208,
          -0.069984,
          0.037759,
          0.194869,
          -0.047209,
          0.069355,
          -0.08681,
          -0.001487,
          0.036386,
          -0.00523,
          -0.29292,
          -0.181246,
          0.096576,
          -0.024372,
          -0.076321,
          -0.24405,
          -0.059139,
          0.0892,
          0.118803,
          0.102958,
          -0.031459,
          -0.045974,
          0.135405,
          0.158568,
          0.033414,
          0.037164,
          -0.066944,
          -0.001696,
          -0.024932,
          0.087989,
          -0.016966,
          -0.149945,
          0.072189,
          0.011727,
          0.03666,
          -0.019084,
          0.062923,
          -0.068008,
          -0.082882,
          0.166015,
          -0.081097,
          -0.026053,
          0.125005,
          0.194431,
          -0.079061,
          0.048461,
          0.031789,
          0.022753,
          0.024931,
          0.042521,
          -0.157254,
          -0.03324,
          -0.068722,
          0.050503,
          0.050011,
          -0.08807,
          -0.00329,
          0.126386,
          -0.0929,
          0.057475,
          0.12805,
          0.010083,
          0.009627
        ],
        [
          0.013516,
          0.054423,
          0.080858,
          -0.082489,
          0.065143,
          0.010776,
          0.132699,
          0.082372,
          -0.02394,
          -0.099511,
          0.169793,
          -0.033043,
          -0.009164,
          0.050733,
          -0.050654,
          -0.032887,
          0.010099,
          -0.038825,
          0.009511,
          -0.039729,
          -0.060739,
          -0.074127,
          -0.01766,
          0.093819,
          0.035875,
          -0.03883,
          0.071781,
          -0.005177,
          -0.076849,
          -0.008548,
          0.179878,
          0.002197,
          0.01061,
          -0.025104,
          0.213598,
          -0.013919,
          -0.019161,
          0.059511,
          0.037234,
          0.045855,
          -0.119056,
          -0.015744,
          -0.116557,
          0.030121,
          0.15646,
          0.080598,
          -0.098235,
          0.017537,
          -0.007874,
          0.066598,
          -0.01232,
          -0.036752,
          0.071535,
          -0.181248,
          -0.080653,
          0.096483,
          -0.065235,
          -0.030917,
          -0.14443,
          0.082765,
          -0.136881,
          0.019747,
          -0.039494,
          0.09205,
          0.002284,
          0.081682,
          -0.06278,
          0.073097,
          0.034286,
          0.016627,
          -0.060262,
          -0.024543,
          -0.069548,
          -0.11896,
          -0.061395,
          -0.044338,
          0.102219,
          0.066125,
          -0.060738,
          0.031801,
          -0.117773,
          -0.071586,
          -0.060508,
          0.03045,
          0.002286,
          0.0362,
          -0.063749,
          0.05511,
          -0.061807,
          0.024189,
          -0.085405,
          0.008214,
          -0.010799,
          -0.013321,
          -0.057131,
          -0.080837,
          0.003042,
          -0.054188,
          0.025249,
          -0.090501,
          0.264598,
          0.133567,
          0.133164,
          -0.027962,
          0.028436,
          -0.052458
        ],
        [
          0.040721,
          -0.099316,
          -0.037563,
          -0.059027,
          -0.011082,
          -0.007291,
          -0.025229,
          -0.035016,
          -0.089358,
          0.111384,
          0.016657,
          0.038035,
          -0.067803,
          0.031512,
          0.051103,
          -0.085804,
          0.050619,
          -0.002514,
          0.00807,
          -0.065603,
          -0.008212,
          0.049836,
          -0.009345,
          -0.081322,
          -0.064187,
          -0.081215,
          0.141196,
          0.000712,
          -0.144735,
          0.065139,
          0.051949,
          0.028009,
          0.052433,
          -0.093648,
          0.060599,
          0.087206,
          -0.025158,
          0.08861,
          0.006829,
          -0.042438,
          -0.024185,
          -0.129848,
          -0.092096,
          -0.054063,
          0.033561,
          -0.024112,
          -0.138448,
          -0.047892,
          -0.000138,
          -0.091198,
          -0.095317,
          -0.062047,
          0.051845,
          0.002673,
          -0.146113,
          0.033734,
          -0.008308,
          0.004009,
          -0.160395,
          0.053114,
          0.109562,
          0.07443,
          -0.087834,
          0.003206,
          0.084728,
          0.059852,
          -0.158095,
          -0.041478,
          0.02167,
          0.093274,
          0.03897,
          -0.064619,
          0.022772,
          0.016874,
          -0.06693,
          -0.071853,
          0.01839,
          0.064696,
          -0.144809,
          0.039646,
          -0.009122,
          -0.06049,
          -0.091225,
          -0.02442,
          0.005914,
          0.009707,
          -0.038842,
          0.083462,
          0.08927,
          -0.058667,
          -0.002593,
          0.038005,
          0.031661,
          -0.021322,
          -0.026906,
          -0.057117,
          -0.078131,
          -0.019556,
          0.032027,
          0.080043,
          0.13468,
          0.136622,
          0.12616,
          -0.023324,
          0.036195,
          0.011283
        ],
        [
          -0.0216,
          -0.034518,
          0.106073,
          -0.081786,
          0.056306,
          -0.0817,
          -0.100373,
          0.092656,
          -0.022805,
          0.144442,
          0.078128,
          -0.02431,
          0.059322,
          0.074797,
          0.007447,
          0.012238,
          -0.062709,
          0.081422,
          0.110915,
          0.032967,
          0.045416,
          0.008962,
          -0.086056,
          0.065376,
          -0.006342,
          0.043239,
          0.155085,
          0.078491,
          -0.092251,
          0.0258,
          -0.015659,
          -0.062326,
          -0.059661,
          0.083511,
          0.074865,
          -0.018069,
          -0.030358,
          0.076763,
          0.091581,
          -0.071478,
          0.111253,
          -0.04216,
          -0.201926,
          -0.028466,
          -0.033108,
          0.055387,
          -0.117342,
          0.038079,
          0.036982,
          0.001277,
          0.009832,
          -0.070002,
          0.004537,
          0.063536,
          -0.247669,
          -0.086464,
          0.061578,
          -0.025069,
          -0.083612,
          -0.006888,
          0.108676,
          0.012392,
          0.041174,
          0.077914,
          0.078685,
          -0.000467,
          -0.018453,
          -0.037751,
          0.078203,
          -0.014367,
          -0.078906,
          0.092514,
          0.118116,
          0.016789,
          -0.099207,
          -0.055583,
          0.045649,
          -0.008699,
          0.015143,
          -0.067557,
          0.035186,
          0.083515,
          -0.051407,
          -0.027714,
          0.028923,
          0.0679,
          0.007515,
          -0.049093,
          -0.007592,
          0.065457,
          -0.015306,
          0.037211,
          -0.027807,
          -0.040135,
          -0.039002,
          0.025931,
          -0.027195,
          -0.006315,
          0.019592,
          0.070313,
          -0.199256,
          -0.005984,
          0.204215,
          -0.082005,
          -0.17371,
          0.11728
        ],
        [
          0.006572,
          -0.199247,
          -0.133132,
          0.090074,
          -0.000878,
          -0.08454,
          0.034679,
          0.029389,
          0.066224,
          -0.322364,
          -0.116946,
          0.036637,
          0.028767,
          -0.200925,
          -0.059615,
          -0.070861,
          -0.000922,
          -0.098678,
          -0.053927,
          0.050435,
          0.047641,
          -0.019996,
          -0.081422,
          -0.069113,
          0.099029,
          0.086763,
          -0.082349,
          0.066552,
          0.305279,
          -0.111237,
          -0.054332,
          0.069097,
          0.227144,
          0.007051,
          -0.237605,
          -0.028529,
          0.033868,
          -0.154806,
          -0.124045,
          -0.030527,
          -0.065765,
          0.12708,
          0.162922,
          -0.083929,
          0.013463,
          0.042914,
          0.273567,
          0.075984,
          -0.044252,
          -0.03481,
          0.001374,
          0.090572,
          0.031081,
          -0.094968,
          0.194697,
          -0.035224,
          -0.008137,
          -0.062778,
          0.179133,
          0.042618,
          0.053611,
          -0.07199,
          0.075251,
          -0.09222,
          -0.034253,
          -0.006582,
          0.216512,
          -0.040138,
          0.032302,
          0.056297,
          0.077125,
          0.007209,
          0.095622,
          -0.009959,
          0.164234,
          0.03865,
          -0.082182,
          -0.091091,
          0.05224,
          0.004063,
          0.038831,
          -0.060661,
          0.085383,
          0.08012,
          -0.069359,
          -0.033496,
          0.065034,
          0.057858,
          -0.165139,
          0.008975,
          0.150303,
          0.067727,
          -0.055986,
          0.036218,
          0.129307,
          0.040989,
          -0.019304,
          0.021456,
          0.104067,
          -0.057682,
          -0.207692,
          0.063147,
          -0.03301,
          0.099035,
          0.102292,
          -0.034296
        ],
        [
          0.070428,
          -0.037494,
          -0.141389,
          0.061788,
          0.019476,
          -0.150527,
          -0.112568,
          0.093538,
          0.106934,
          -0.108026,
          0.027233,
          0.094524,
          0.13038,
          -0.076784,
          0.049755,
          -0.054475,
          0.059117,
          0.047264,
          -0.066957,
          -0.055814,
          0.050934,
          -0.11628,
          -0.078934,
          0.010585,
          0.040312,
          -0.08102,
          -0.011802,
          -0.080733,
          0.157527,
          -0.194835,
          -0.027457,
          -0.052977,
          0.118393,
          -0.090025,
          -0.023651,
          -0.056549,
          0.006501,
          0.042799,
          -0.000849,
          -0.03857,
          -0.040937,
          0.026495,
          0.359422,
          0.044902,
          -0.082374,
          -0.07049,
          0.412106,
          -0.058232,
          -0.036969,
          0.067315,
          -0.029465,
          0.008959,
          0.085768,
          -0.213029,
          -0.153449,
          0.036895,
          0.064009,
          -0.054358,
          -0.066902,
          -0.07899,
          -0.069331,
          -0.011275,
          0.130254,
          0.029928,
          -0.099955,
          0.083488,
          0.079159,
          -0.061324,
          -0.052354,
          -0.002909,
          -0.088808,
          -0.096451,
          -0.072416,
          -0.092969,
          -0.129288,
          0.070448,
          -0.06967,
          0.005244,
          -0.054636,
          -0.019154,
          -0.08141,
          -0.105271,
          0.162434,
          0.068902,
          -0.058695,
          0.033103,
          0.181225,
          0.046803,
          -0.068887,
          -0.033686,
          -3.3e-05,
          0.065251,
          0.045872,
          -0.185199,
          -0.05968,
          0.032448,
          0.033813,
          -0.082129,
          -0.08173,
          -0.095713,
          0.008021,
          -0.109918,
          0.036372,
          0.011278,
          0.044274,
          -0.149912
        ],
        [
          0.041114,
          0.058435,
          -0.003732,
          -0.084618,
          -0.030265,
          -0.093458,
          0.082682,
          0.048949,
          -0.124161,
          0.044808,
          0.11974,
          0.06043,
          0.028575,
          0.009231,
          0.090185,
          0.051569,
          -0.088449,
          0.054066,
          0.103501,
          -0.048894,
          0.036483,
          -0.07564,
          -0.011648,
          0.06647,
          0.04177,
          -0.096279,
          0.156145,
          -0.01287,
          -0.070211,
          -0.098597,
          0.184074,
          -0.096638,
          -0.043876,
          -0.019367,
          0.1363,
          -0.043525,
          -0.122105,
          -0.145394,
          0.124465,
          -0.092443,
          -0.039113,
          0.016156,
          -0.143739,
          -0.022047,
          0.002054,
          0.065249,
          -0.143947,
          0.074217,
          0.047331,
          -0.076206,
          0.043677,
          0.033106,
          0.101528,
          -0.118922,
          -0.158085,
          -0.007002,
          0.051793,
          -0.044117,
          -0.137739,
          0.086321,
          -0.019965,
          0.002185,
          0.000398,
          0.013193,
          0.026208,
          -0.093638,
          -0.070462,
          -0.05887,
          -0.093296,
          -0.021936,
          -0.028921,
          -0.070023,
          0.119965,
          0.018802,
          -0.044191,
          -0.006597,
          -0.040223,
          0.019282,
          -0.060948,
          -0.096375,
          0.033545,
          -0.03082,
          -0.040352,
          0.063656,
          -0.088208,
          0.014537,
          0.025329,
          -0.060512,
          0.079952,
          -0.030673,
          0.019027,
          -0.0001,
          0.033329,
          0.011419,
          -0.141717,
          0.095635,
          0.027786,
          -0.011972,
          -0.089684,
          0.076864,
          0.19349,
          -0.1569,
          0.082036,
          0.046996,
          -0.008047,
          -0.121537
        ],
        [
          -0.082487,
          0.071293,
          0.05539,
          -0.061611,
          -0.067209,
          -0.105903,
          0.075929,
          0.049383,
          -0.108733,
          -0.077771,
          0.135091,
          0.06067,
          -0.034724,
          0.140635,
          0.117299,
          0.06098,
          -0.091196,
          0.040358,
          0.091646,
          0.074168,
          -0.056644,
          -0.03473,
          0.178614,
          -0.048707,
          0.050998,
          0.066755,
          0.147204,
          -0.011253,
          -0.08236,
          -0.07582,
          0.19404,
          0.071476,
          -0.007551,
          -0.098673,
          0.110389,
          0.009677,
          0.053939,
          -0.054566,
          0.164737,
          -0.060262,
          0.0275,
          -0.063513,
          -0.102583,
          0.062396,
          -0.057894,
          -0.110162,
          -0.200193,
          0.088818,
          0.089537,
          -0.054578,
          0.037433,
          -0.04963,
          0.01929,
          -0.090591,
          -0.051389,
          0.084765,
          -0.068256,
          0.008383,
          -0.12179,
          -0.015455,
          0.055502,
          0.022938,
          -0.041627,
          -0.02393,
          -0.064068,
          -0.034188,
          -0.091699,
          -0.025188,
          0.051415,
          0.047265,
          -0.02935,
          0.077784,
          0.021743,
          -0.056862,
          -0.127175,
          0.089032,
          0.002663,
          0.020234,
          0.013704,
          0.007801,
          0.026324,
          0.020244,
          -0.087767,
          0.074795,
          0.077439,
          -0.015066,
          -0.072091,
          -0.016567,
          0.022464,
          -0.006689,
          -0.089225,
          0.078286,
          -0.012351,
          -0.003624,
          -0.087322,
          -0.003814,
          0.024548,
          -0.042917,
          -0.112922,
          0.070523,
          0.235257,
          0.023462,
          0.113933,
          0.026964,
          -0.01405,
          -0.041577
        ],
        [
          0.087675,
          0.016176,
          0.091502,
          -0.062316,
          0.026532,
          0.055444,
          -0.127695,
          0.035278,
          0.05633,
          -0.185076,
          -0.065251,
          -0.04465,
          0.016729,
          -0.008109,
          0.051856,
          0.046544,
          0.010177,
          -0.055355,
          -0.03322,
          -0.089738,
          -0.046975,
          -0.056334,
          -0.100082,
          0.018454,
          0.110843,
          -0.057454,
          -0.092406,
          0.01783,
          -0.038036,
          -0.023996,
          -0.181796,
          0.077059,
          0.077568,
          -0.127861,
          0.014348,
          -0.089859,
          0.033661,
          0.046768,
          0.109269,
          -0.033386,
          -0.001573,
          -0.051862,
          0.313425,
          0.056667,
          0.048479,
          -0.047251,
          0.282192,
          -0.055303,
          0.043341,
          -0.086346,
          -0.067959,
          -0.093836,
          0.142521,
          -0.130487,
          -0.19292,
          0.080183,
          0.020299,
          -0.148548,
          -0.17106,
          0.006678,
          -0.022044,
          -0.022058,
          0.103739,
          0.003743,
          -0.04931,
          0.010746,
          -0.002817,
          0.001469,
          -0.001485,
          -0.057512,
          -0.036395,
          -0.028778,
          0.039367,
          -0.247611,
          -0.040902,
          -0.066574,
          0.032621,
          -0.121192,
          -0.058721,
          0.037036,
          -0.048302,
          -0.131466,
          0.039761,
          -0.061004,
          -0.041888,
          0.00483,
          0.09594,
          -0.038611,
          0.076523,
          0.070934,
          0.155025,
          0.022781,
          0.089065,
          -0.14602,
          -0.063556,
          -0.065521,
          -0.040048,
          0.088041,
          -0.021318,
          0.08554,
          -0.156581,
          -0.317861,
          0.041437,
          0.08087,
          0.058977,
          -0.018906
        ],
        [
          -0.02554,
          -0.028983,
          0.101475,
          -0.019702,
          0.074135,
          0.011615,
          0.016969,
          -0.032184,
          0.018266,
          -0.038893,
          0.066541,
          0.091361,
          0.039867,
          0.012091,
          -0.065144,
          0.005366,
          -0.003837,
          0.039946,
          -0.056993,
          0.02508,
          0.021179,
          0.087577,
          0.153294,
          -0.05086,
          0.070915,
          0.007399,
          0.245316,
          0.076373,
          -0.111108,
          -0.055869,
          0.112434,
          -0.085145,
          0.034661,
          -0.039397,
          0.086397,
          0.068546,
          -0.024264,
          0.049182,
          0.085348,
          0.072219,
          -0.023078,
          -0.071409,
          -0.248609,
          0.050583,
          -0.030801,
          -0.030716,
          -0.320771,
          -0.066218,
          0.091165,
          -0.086226,
          -0.093908,
          -0.005138,
          -0.013447,
          -0.015119,
          -0.087458,
          0.047891,
          0.080096,
          -0.060768,
          -0.143383,
          0.075394,
          0.040606,
          0.006571,
          -0.116714,
          -0.081866,
          0.089958,
          0.003379,
          -0.082502,
          -0.044031,
          0.096693,
          0.070887,
          0.019259,
          -0.042818,
          0.08195,
          -0.025314,
          -0.030691,
          0.096807,
          0.053213,
          0.035233,
          -0.098032,
          0.008765,
          -0.05513,
          0.077942,
          -0.05069,
          -0.073163,
          -0.026337,
          -0.043428,
          -0.09259,
          -0.054821,
          0.112388,
          0.092743,
          0.00116,
          -0.081502,
          -0.050507,
          0.076101,
          -0.117231,
          -0.036687,
          0.040826,
          0.041402,
          0.030978,
          -0.025033,
          0.087401,
          0.104171,
          0.192953,
          -0.089395,
          0.02512,
          0.117251
        ],
        [
          0.066012,
          0.042442,
          0.105694,
          -0.048007,
          -0.019411,
          -0.116607,
          0.050584,
          -0.026986,
          -0.04634,
          0.135147,
          0.191585,
          0.084307,
          -0.020428,
          -0.068724,
          -0.00919,
          -0.041817,
          -0.047592,
          -0.121187,
          0.0168,
          0.088365,
          0.047305,
          -0.094176,
          0.035626,
          -0.04026,
          -0.102284,
          -0.172934,
          0.091869,
          0.086772,
          0.002447,
          -0.055846,
          0.230773,
          0.091951,
          -0.09108,
          -0.163907,
          0.218933,
          -0.053239,
          -0.086761,
          -0.081529,
          0.005432,
          0.041153,
          -0.008203,
          -0.127011,
          -0.096303,
          -0.053305,
          -0.077399,
          -0.054566,
          -0.167682,
          0.039436,
          -0.066151,
          -0.037714,
          -0.080868,
          0.015034,
          0.114466,
          0.015106,
          -0.047336,
          -0.095201,
          0.030551,
          -0.106056,
          -0.190891,
          -0.021156,
          0.006269,
          0.005582,
          -0.013572,
          -0.031175,
          0.03506,
          0.009717,
          -0.107365,
          0.012527,
          -0.078511,
          0.00828,
          -0.046661,
          -0.023764,
          -0.01989,
          -0.106255,
          -0.005075,
          0.03118,
          0.119059,
          0.028961,
          -0.094289,
          -0.050405,
          0.032681,
          -0.013338,
          -0.087716,
          0.007072,
          -0.007475,
          -0.037248,
          -0.033477,
          0.0424,
          -0.101544,
          -0.041655,
          -0.108247,
          -0.011979,
          0.03062,
          0.008449,
          -0.133146,
          -0.036307,
          -0.01172,
          -0.011362,
          -0.031732,
          0.035421,
          0.350174,
          0.113628,
          0.017799,
          -0.029829,
          0.014246,
          -0.122317
        ],
        [
          0.076077,
          -0.129135,
          -0.106178,
          0.065959,
          0.064436,
          -0.087067,
          -0.013219,
          0.006756,
          0.100296,
          -0.184535,
          -0.148384,
          -0.023009,
          0.078674,
          -0.18646,
          0.008273,
          -0.006292,
          0.107006,
          -0.06177,
          -0.045203,
          -0.058953,
          -0.01251,
          -0.142521,
          -0.135744,
          0.04667,
          0.039875,
          -0.208198,
          -0.118052,
          0.055097,
          0.089355,
          -0.171704,
          -0.198102,
          -0.001867,
          0.058428,
          -0.261282,
          -0.066004,
          -0.01651,
          0.112221,
          -0.095783,
          -0.177517,
          0.042019,
          -0.06378,
          -0.176145,
          0.202009,
          0.079835,
          0.029058,
          -0.223971,
          0.312698,
          -0.089208,
          -0.009699,
          0.044789,
          0.06336,
          0.036591,
          -0.080036,
          -0.085129,
          0.282779,
          0.082988,
          -0.040265,
          -0.116263,
          0.115858,
          -0.036537,
          0.016726,
          -0.013015,
          0.048228,
          0.044666,
          -0.011465,
          0.029495,
          0.071278,
          -0.018878,
          0.081915,
          0.034698,
          0.024365,
          -0.04585,
          -0.030866,
          -0.036059,
          0.217906,
          0.067375,
          -0.004973,
          0.055364,
          -0.000697,
          -0.001072,
          0.02375,
          0.048484,
          0.116697,
          -0.043781,
          -0.103093,
          -0.071814,
          0.079324,
          0.00404,
          -0.026388,
          -0.058605,
          0.16038,
          0.006728,
          0.002222,
          -0.010464,
          0.104624,
          -0.08106,
          -0.016533,
          0.018169,
          0.02045,
          0.064706,
          -0.305264,
          -0.090975,
          0.033531,
          -0.015719,
          -0.02709,
          -0.042253
        ],
        [
          0.011847,
          0.064202,
          0.002438,
          0.076773,
          -0.095355,
          -0.065327,
          -0.045212,
          0.0163,
          0.029613,
          0.042211,
          -0.083574,
          0.040682,
          0.029914,
          -0.048096,
          -0.019055,
          0.049869,
          -0.005355,
          -0.027369,
          0.013359,
          0.074802,
          -0.02021,
          0.042852,
          0.031509,
          0.023065,
          -0.061281,
          -0.090088,
          -0.039411,
          0.003639,
          0.07798,
          -0.068694,
          -0.068727,
          -0.086627,
          -0.014932,
          0.063005,
          -0.027987,
          0.034608,
          -0.069887,
          -0.086629,
          -0.014147,
          -0.050882,
          0.075241,
          -0.005663,
          0.013374,
          -0.052263,
          0.076065,
          0.016544,
          -0.04099,
          0.010038,
          -0.067192,
          0.082504,
          0.063207,
          -0.001867,
          0.073407,
          0.052907,
          0.011245,
          -0.0457,
          -0.032378,
          0.041907,
          0.020643,
          0.038355,
          -0.070242,
          0.036342,
          0.03014,
          -0.042762,
          -0.020227,
          -0.018947,
          -0.069397,
          -0.092741,
          -0.003965,
          0.059723,
          0.051081,
          -0.028521,
          -0.06859,
          -0.080179,
          0.056592,
          0.051389,
          0.0103,
          -0.01001,
          0.032434,
          -0.057546,
          0.050759,
          -0.075311,
          0.02682,
          0.061218,
          -0.003004,
          0.039567,
          -0.069826,
          -0.061382,
          -0.092162,
          -0.109904,
          -0.050927,
          -0.019164,
          -0.007233,
          0.042389,
          -0.059586,
          0.043426,
          -0.027952,
          -0.045469,
          -0.086366,
          -0.069288,
          0.024515,
          0.050094,
          -0.045975,
          -0.081444,
          -0.058567,
          -0.102212
        ],
        [
          -0.020738,
          0.107525,
          -0.080107,
          0.036246,
          0.056546,
          0.004269,
          0.03849,
          -0.087826,
          -0.061075,
          -0.118458,
          -0.019196,
          -0.064411,
          0.073747,
          -0.042287,
          -0.015205,
          0.00891,
          -0.056299,
          -0.018545,
          0.001851,
          -0.014925,
          0.064362,
          -0.022615,
          0.029391,
          -0.076494,
          0.05666,
          0.164211,
          -0.10187,
          0.081718,
          0.298709,
          0.110067,
          -0.152511,
          -0.063825,
          0.083874,
          0.028108,
          0.012994,
          -0.015082,
          0.048479,
          0.090255,
          -0.064109,
          -0.083384,
          0.088684,
          0.105865,
          0.090001,
          -0.075347,
          -0.045187,
          0.004999,
          0.161394,
          0.071259,
          -0.006169,
          0.040267,
          -0.064836,
          0.145421,
          0.025803,
          0.048198,
          0.180578,
          -0.015434,
          0.04494,
          0.056015,
          0.232718,
          0.059708,
          0.111142,
          -0.004519,
          0.072077,
          0.042856,
          0.075316,
          0.084869,
          0.151424,
          0.09547,
          0.070241,
          0.076956,
          0.069174,
          -0.077944,
          -0.091667,
          0.03768,
          0.122067,
          0.008652,
          -0.07089,
          -0.046947,
          0.004837,
          -0.089044,
          -0.025924,
          0.002855,
          0.029829,
          0.009998,
          -0.04352,
          0.047542,
          0.021534,
          0.048722,
          0.110499,
          -0.040212,
          0.044128,
          -0.041836,
          0.043763,
          0.057325,
          0.087357,
          -0.053172,
          0.081884,
          0.031637,
          0.021748,
          -0.017514,
          -0.158788,
          0.017895,
          -0.109812,
          0.166169,
          0.056422,
          -0.025145
        ],
        [
          -0.030584,
          0.085848,
          0.086312,
          0.045283,
          0.036795,
          0.150793,
          0.046773,
          0.093392,
          -0.004399,
          -0.102911,
          0.040353,
          -0.083369,
          0.015521,
          -0.113038,
          0.209698,
          -0.046724,
          -0.030532,
          -0.110828,
          0.219529,
          -0.085049,
          -0.01833,
          -0.138722,
          0.04542,
          -0.04296,
          0.043483,
          -0.051259,
          0.173142,
          -0.018784,
          0.046907,
          0.018347,
          0.090365,
          0.07586,
          0.057212,
          0.162915,
          0.053036,
          -0.000875,
          -0.066924,
          -0.030363,
          0.201127,
          0.037352,
          -0.06938,
          -0.094358,
          0.24921,
          0.050888,
          0.012039,
          -0.032873,
          0.141026,
          -0.007612,
          -0.091762,
          0.038464,
          -0.064336,
          0.070093,
          -0.106338,
          0.020713,
          -0.141483,
          -0.056775,
          -0.093454,
          -0.010596,
          -0.100485,
          -0.050074,
          0.094695,
          0.079027,
          0.176375,
          0.095082,
          0.073831,
          0.023503,
          0.109679,
          0.005722,
          -0.07879,
          -0.020653,
          0.069539,
          0.029533,
          -0.071163,
          0.091322,
          -0.148561,
          -0.008084,
          -0.139435,
          -0.022272,
          -0.172514,
          -0.030147,
          -0.003427,
          -0.048459,
          0.140094,
          0.020929,
          -0.088142,
          -0.010136,
          0.136092,
          0.081063,
          0.025771,
          0.065421,
          -0.061517,
          -0.083894,
          -0.063589,
          0.009644,
          -0.025265,
          0.081891,
          -0.129478,
          0.082729,
          -0.055708,
          -0.037463,
          0.156664,
          -0.265177,
          0.013909,
          0.096333,
          -0.189485,
          -0.127905
        ],
        [
          -0.103553,
          0.050732,
          -0.068419,
          0.04952,
          -0.089773,
          0.101961,
          0.064738,
          -0.091802,
          -0.130002,
          0.038751,
          -0.105836,
          -0.073028,
          -0.005369,
          0.156481,
          -0.011166,
          -0.016025,
          -0.073734,
          0.084694,
          0.007687,
          -0.021909,
          -0.061571,
          -0.088347,
          -0.074715,
          -0.074645,
          -0.143092,
          0.000197,
          -0.091614,
          -0.08542,
          0.095372,
          0.169643,
          -0.130849,
          -0.058221,
          -0.066941,
          0.130266,
          -0.050471,
          -0.093863,
          0.046757,
          0.045911,
          -0.012215,
          -0.004725,
          -0.054963,
          0.080836,
          0.171673,
          -0.063566,
          -0.006663,
          0.047431,
          0.135465,
          0.012117,
          0.080529,
          0.072783,
          0.06081,
          0.089388,
          0.062218,
          0.006553,
          0.047278,
          0.02821,
          -0.002757,
          -0.064007,
          0.058655,
          -0.052185,
          -0.011405,
          0.083018,
          -0.052141,
          -0.013472,
          -0.001106,
          -0.014744,
          0.138765,
          0.059804,
          -0.042002,
          0.058292,
          -0.053995,
          -0.076305,
          0.003737,
          0.044293,
          0.127493,
          -0.001312,
          -0.016601,
          0.042554,
          0.110879,
          0.08751,
          0.068016,
          -0.089914,
          0.105718,
          0.073683,
          -0.060832,
          0.006915,
          0.11966,
          -0.076315,
          0.044993,
          0.013485,
          0.13417,
          -0.00225,
          -0.052769,
          0.076136,
          -3.1e-05,
          -0.078482,
          -0.027027,
          0.085722,
          -0.158944,
          -0.076942,
          -0.17679,
          0.03693,
          -0.044754,
          0.222595,
          0.044573,
          0.057244
        ],
        [
          0.010865,
          -0.005491,
          0.070671,
          0.091842,
          -0.010812,
          -0.094332,
          0.119491,
          -0.089054,
          -0.031227,
          -0.090792,
          0.108185,
          -0.059656,
          0.007798,
          -0.018615,
          0.02285,
          -0.091891,
          0.049214,
          -0.021547,
          0.123363,
          -0.090868,
          0.045145,
          -0.049254,
          0.115552,
          -0.020182,
          -0.028451,
          -0.119927,
          0.140809,
          0.0656,
          -0.044345,
          -0.08151,
          0.142173,
          -0.054129,
          0.029513,
          0.067928,
          0.069143,
          0.028165,
          -0.052911,
          -0.005718,
          0.079677,
          -0.020649,
          -0.026092,
          -0.03746,
          -0.043806,
          0.080248,
          0.116458,
          0.095426,
          -0.180341,
          0.047162,
          0.032133,
          -0.070093,
          -0.015289,
          -0.027611,
          0.068539,
          0.061208,
          -0.165145,
          -0.075773,
          -0.023275,
          0.024417,
          -0.085338,
          -0.001549,
          0.014388,
          -0.024119,
          -0.06423,
          -0.029431,
          -0.038784,
          -0.093431,
          -0.10919,
          0.077985,
          0.094734,
          -0.016267,
          -0.086207,
          -0.027722,
          0.062136,
          0.104476,
          -0.110112,
          -0.032314,
          -0.032746,
          0.063107,
          -0.137272,
          0.062752,
          0.022245,
          0.084902,
          -0.071121,
          -0.078848,
          -0.049552,
          -0.052171,
          -0.040563,
          -0.051537,
          0.034184,
          0.037971,
          -0.109684,
          0.071843,
          0.0489,
          -0.042278,
          -0.025284,
          0.032135,
          0.021049,
          -0.03028,
          -0.023994,
          0.076618,
          0.295543,
          -0.101503,
          0.072556,
          0.036859,
          -0.122374,
          0.030796
        ],
        [
          -0.024462,
          -0.022816,
          0.072456,
          -0.083313,
          0.002721,
          -0.003021,
          0.069011,
          0.032502,
          -0.075507,
          -0.000808,
          0.050769,
          0.070462,
          0.053601,
          -0.139844,
          0.048137,
          -0.048619,
          0.059053,
          -0.097956,
          0.073491,
          0.000139,
          -0.052472,
          -0.069342,
          0.085524,
          0.020024,
          0.025024,
          -0.142973,
          0.150547,
          -0.095799,
          -0.053986,
          -0.141672,
          0.222933,
          -0.031927,
          -0.05839,
          -0.079594,
          0.07384,
          -0.038941,
          0.04071,
          -0.032064,
          0.064466,
          0.029872,
          0.135698,
          -0.167303,
          -0.082565,
          -0.07816,
          0.029193,
          -0.057682,
          -0.155526,
          0.046697,
          0.039782,
          0.09064,
          -0.039676,
          -0.052215,
          0.053442,
          -0.076081,
          -0.100616,
          -0.094069,
          -0.064405,
          -0.038121,
          -0.094481,
          -0.03495,
          -0.01117,
          -0.0049,
          -0.08405,
          0.033102,
          0.002686,
          -0.075808,
          -0.059179,
          -0.063829,
          -0.040558,
          -0.047351,
          -0.017816,
          0.069032,
          0.047918,
          0.019589,
          -0.027222,
          -0.083217,
          0.074315,
          -0.008523,
          -0.121784,
          0.037671,
          -0.036427,
          -0.006438,
          -0.086466,
          0.013298,
          0.035656,
          -0.001958,
          -0.027249,
          0.009529,
          -0.016575,
          -0.050785,
          -0.141601,
          0.070921,
          -0.099133,
          0.014059,
          -0.083073,
          -0.077747,
          -0.018444,
          -0.031245,
          0.013116,
          -0.047821,
          0.449944,
          -0.017987,
          0.033916,
          0.102558,
          0.092298,
          -0.119656
        ],
        [
          0.053321,
          -0.057802,
          0.02188,
          -0.010746,
          0.01878,
          0.003136,
          0.132696,
          -0.004816,
          -0.040517,
          -0.0817,
          0.119066,
          -0.014792,
          0.065059,
          0.006317,
          -0.013412,
          0.061247,
          0.051014,
          -0.090104,
          0.040165,
          0.016197,
          0.022666,
          -0.08703,
          0.128127,
          0.092539,
          -0.0174,
          0.119882,
          0.037633,
          -0.056107,
          -0.110724,
          -0.141674,
          0.055736,
          -0.042863,
          -0.033495,
          -0.028911,
          0.000964,
          -0.023298,
          0.070572,
          0.07468,
          -0.015864,
          0.021229,
          0.070726,
          -0.066285,
          -0.139334,
          -0.076475,
          0.089766,
          0.107784,
          -0.134169,
          0.017195,
          0.038027,
          -0.094437,
          0.094255,
          -0.083387,
          -0.066449,
          -0.027713,
          0.0476,
          0.040789,
          0.028137,
          0.022648,
          0.017521,
          0.074964,
          0.036032,
          0.029642,
          -0.130247,
          -0.087837,
          0.109242,
          0.076637,
          -0.074011,
          -0.04037,
          0.018075,
          0.08224,
          0.013997,
          -0.094918,
          -0.065525,
          0.120789,
          -0.014143,
          0.063507,
          0.038785,
          0.012466,
          0.179564,
          0.028384,
          0.00913,
          -0.137534,
          -0.118954,
          -0.022803,
          0.135038,
          -0.067062,
          -0.026085,
          -0.050092,
          0.079976,
          -0.052935,
          -0.014282,
          -0.09485,
          0.021987,
          0.147363,
          0.050905,
          -0.08702,
          -0.063242,
          -0.010673,
          -0.010407,
          -0.091672,
          0.056317,
          0.048969,
          0.084787,
          -0.1808,
          0.085839,
          -0.035175
        ],
        [
          0.055319,
          0.086207,
          0.057768,
          -0.092939,
          0.100913,
          0.073828,
          0.033627,
          -0.065916,
          0.025535,
          0.035552,
          0.005092,
          -0.091115,
          0.062085,
          0.09745,
          0.001765,
          0.031441,
          -0.06147,
          0.026551,
          0.003117,
          -0.046765,
          0.03885,
          0.01908,
          0.114477,
          0.097114,
          0.053652,
          0.121052,
          0.008262,
          -0.081558,
          0.048411,
          -0.053834,
          0.078779,
          -0.096033,
          -0.022356,
          0.136892,
          0.092923,
          -0.016542,
          0.059806,
          0.082973,
          0.116391,
          0.030449,
          -0.01373,
          -0.068922,
          0.048664,
          0.078421,
          0.124554,
          0.05782,
          0.082976,
          -0.024225,
          -0.020895,
          -0.027396,
          0.09509,
          0.055319,
          0.111105,
          0.056139,
          0.059978,
          -0.009574,
          0.01365,
          0.098164,
          0.031215,
          -0.094033,
          -0.028011,
          0.016091,
          0.105004,
          -0.090241,
          0.032534,
          -0.004873,
          0.094523,
          -0.048865,
          -0.04493,
          0.093932,
          0.044192,
          0.085987,
          0.050531,
          0.070054,
          0.013475,
          0.022279,
          0.093958,
          -0.044826,
          -0.063547,
          0.074695,
          0.040978,
          -0.034054,
          0.066091,
          -0.033066,
          -0.035092,
          0.108158,
          -0.010724,
          -0.005571,
          0.098679,
          -0.048512,
          -0.085307,
          0.049691,
          0.119485,
          -0.009279,
          -0.007953,
          -0.077046,
          0.041383,
          -0.020244,
          -0.033137,
          -0.029643,
          0.045963,
          -0.051031,
          0.071922,
          0.065542,
          0.054797,
          0.04715
        ],
        [
          0.013544,
          0.076869,
          -0.043245,
          -0.085084,
          -0.0108,
          0.068444,
          -0.017451,
          0.01415,
          0.048785,
          0.098087,
          -0.056645,
          0.081429,
          -0.015888,
          0.124076,
          0.059784,
          0.006673,
          -0.017676,
          0.136152,
          0.085615,
          0.049572,
          0.006136,
          0.050151,
          -0.030153,
          -0.083638,
          0.00056,
          0.123154,
          -0.166456,
          0.009505,
          0.089624,
          0.195923,
          0.049908,
          -0.059459,
          0.090807,
          0.150691,
          0.02181,
          0.090654,
          0.025363,
          0.046047,
          0.088962,
          0.081277,
          0.007042,
          -0.023058,
          -0.071568,
          0.085141,
          0.027329,
          0.063866,
          -0.01947,
          0.094125,
          -0.032929,
          -0.012905,
          0.0591,
          -0.038522,
          0.002247,
          0.218706,
          0.190583,
          0.055481,
          -0.052929,
          0.123606,
          0.011735,
          0.007989,
          -0.068423,
          -0.074403,
          -0.040609,
          -0.040979,
          0.017915,
          0.123013,
          0.100019,
          0.021181,
          0.089965,
          0.040892,
          0.009723,
          0.0475,
          -0.110616,
          0.122289,
          0.068257,
          0.077466,
          -0.031333,
          -0.085376,
          0.043165,
          0.07408,
          0.013137,
          0.054083,
          -0.009889,
          0.089626,
          0.005574,
          -0.026962,
          -0.160629,
          -0.081396,
          0.101803,
          0.028834,
          -0.032857,
          -0.033902,
          -0.000108,
          -0.029253,
          0.02586,
          -0.055461,
          0.032727,
          0.010919,
          -0.170203,
          0.081468,
          0.333662,
          -0.050932,
          -0.225986,
          -0.001544,
          0.165463,
          0.154254
        ],
        [
          0.125647,
          0.023553,
          0.032094,
          0.035291,
          0.060514,
          -0.075907,
          0.061309,
          0.040265,
          0.044005,
          -0.106093,
          -0.194452,
          0.010294,
          0.128558,
          -0.015271,
          0.078873,
          -0.084293,
          0.135416,
          -0.056696,
          0.025998,
          -0.00599,
          0.120773,
          -0.125322,
          0.02599,
          -0.020851,
          0.125602,
          -0.037045,
          -0.046256,
          -0.025662,
          0.15349,
          0.109336,
          -0.064104,
          -0.053624,
          0.117077,
          0.029585,
          -0.081805,
          -0.024459,
          0.066085,
          -0.009213,
          -0.096049,
          -0.09653,
          0.047476,
          0.079996,
          0.223827,
          0.04383,
          -0.054574,
          0.055889,
          0.270772,
          0.050959,
          0.092642,
          0.047249,
          0.039916,
          0.015476,
          0.046589,
          0.074877,
          0.112792,
          0.000241,
          0.010641,
          0.069931,
          -0.039839,
          -0.050366,
          -0.002491,
          0.089619,
          0.147616,
          0.073763,
          -0.152365,
          0.099338,
          0.044016,
          -0.08885,
          0.015243,
          0.140411,
          -0.053726,
          0.019722,
          0.142616,
          0.080052,
          -0.0643,
          -0.070114,
          0.125585,
          0.068695,
          -0.109442,
          -0.028551,
          0.041624,
          -0.107537,
          -0.005064,
          0.007192,
          -0.050757,
          0.081466,
          0.079335,
          0.034057,
          -0.016056,
          0.144258,
          0.10534,
          -0.083344,
          0.150316,
          -0.009131,
          0.072179,
          0.014861,
          -0.029507,
          -0.009176,
          0.019279,
          -0.061462,
          -0.025796,
          -0.132938,
          -0.104194,
          0.143468,
          -7e-05,
          -0.067822
        ],
        [
          -0.074187,
          0.094435,
          0.077739,
          0.069571,
          0.05457,
          -0.018829,
          0.076642,
          0.009785,
          -0.003533,
          -0.046674,
          0.124505,
          0.022238,
          0.003231,
          -0.092279,
          -0.012392,
          0.005356,
          0.012747,
          0.099506,
          -0.050199,
          -0.088467,
          -0.108367,
          0.05639,
          0.09359,
          0.014805,
          -0.008633,
          -0.118694,
          0.219367,
          0.096622,
          -0.159523,
          -0.018957,
          0.152371,
          -0.070659,
          0.037632,
          -0.015267,
          0.11225,
          0.00598,
          0.010967,
          0.04302,
          -0.008017,
          0.050919,
          0.003924,
          -0.033689,
          -0.1747,
          -0.04342,
          0.021463,
          0.079389,
          -0.121212,
          -0.054541,
          -0.073822,
          0.093353,
          0.006987,
          0.058214,
          0.065822,
          -0.099498,
          -0.04063,
          -0.036571,
          -0.05888,
          -0.01041,
          -0.04501,
          -0.060068,
          -0.029381,
          0.048364,
          -0.107023,
          0.016789,
          0.01414,
          0.038191,
          -0.046616,
          -0.085706,
          -0.096986,
          -0.079642,
          -0.046409,
          -0.070754,
          0.057719,
          -0.07454,
          0.002824,
          -0.08019,
          0.092909,
          -0.061666,
          -0.139587,
          -0.047608,
          0.067244,
          0.091834,
          -0.073246,
          0.094582,
          0.000275,
          -0.016831,
          -0.082058,
          -0.066576,
          -0.050914,
          0.081268,
          -0.109761,
          -0.037028,
          0.007701,
          -0.078921,
          -0.099078,
          -0.014887,
          -0.063099,
          0.063688,
          -0.120484,
          -0.090192,
          0.176464,
          -0.027681,
          0.063706,
          0.012526,
          0.031653,
          -0.028584
        ],
        [
          0.133887,
          0.000842,
          0.036208,
          -0.035566,
          0.034582,
          0.109403,
          -0.004587,
          -0.055543,
          0.135234,
          0.004545,
          -0.16679,
          0.068662,
          -0.019162,
          -0.045267,
          -0.029914,
          0.021655,
          0.051097,
          0.01931,
          0.029867,
          0.095868,
          0.051565,
          0.042989,
          -0.082768,
          -0.041594,
          0.158126,
          0.131822,
          -0.205034,
          0.077698,
          0.157522,
          0.017444,
          -0.182126,
          -0.021004,
          0.009837,
          -0.000415,
          -0.141076,
          -0.0565,
          0.175735,
          0.009301,
          -0.054588,
          0.080729,
          -0.052848,
          0.047437,
          0.236843,
          -0.022231,
          0.014069,
          -0.017834,
          0.181028,
          -0.018714,
          0.012317,
          -0.012778,
          0.042785,
          -0.006794,
          0.022181,
          -0.045433,
          0.30406,
          0.045518,
          -0.038158,
          -0.053723,
          0.269501,
          0.091587,
          0.092216,
          -0.04563,
          0.13167,
          -0.07795,
          0.075852,
          0.082434,
          0.038698,
          0.022757,
          0.065622,
          0.105924,
          0.087817,
          -0.052262,
          -0.012102,
          -0.004095,
          0.030855,
          -0.085745,
          0.082973,
          0.098967,
          0.047587,
          -0.060043,
          -0.004128,
          0.031538,
          0.055633,
          0.012948,
          0.120446,
          0.098373,
          0.011649,
          -0.025995,
          0.115292,
          0.15691,
          0.107385,
          -0.073935,
          0.01642,
          0.071548,
          0.044907,
          0.005906,
          -0.041434,
          0.079303,
          0.099419,
          0.089582,
          -0.166687,
          0.040329,
          -0.075261,
          0.177137,
          0.088029,
          0.004434
        ],
        [
          -0.017918,
          0.008292,
          -0.032223,
          -0.044322,
          0.12808,
          -0.070243,
          0.103478,
          -0.016714,
          -0.009252,
          -0.108851,
          0.06017,
          0.032592,
          0.043026,
          -0.041774,
          0.058687,
          0.088522,
          0.015919,
          0.021427,
          0.005134,
          -0.063267,
          -0.08225,
          -0.172502,
          0.18511,
          0.09591,
          0.123977,
          -0.072128,
          0.037114,
          -0.075277,
          -0.075245,
          -0.221542,
          0.068978,
          -0.007364,
          -0.036351,
          -0.000445,
          0.04028,
          0.075988,
          0.104172,
          0.019437,
          0.087946,
          0.071814,
          0.039717,
          -0.260326,
          -0.143295,
          -0.058809,
          0.044106,
          -0.108881,
          -0.182793,
          0.057676,
          0.008608,
          0.060274,
          -0.058494,
          -0.056835,
          -0.089207,
          0.123546,
          0.121866,
          -0.011239,
          -0.05424,
          0.034499,
          0.159075,
          0.07238,
          0.048191,
          -0.075953,
          -0.145838,
          0.031755,
          0.145846,
          -0.078529,
          -0.123065,
          0.009167,
          0.016717,
          0.024743,
          -0.073497,
          0.087101,
          -0.11274,
          -0.044474,
          -0.050357,
          0.00555,
          0.080364,
          0.030994,
          0.186003,
          -0.044301,
          0.051665,
          0.034616,
          -0.117472,
          0.054908,
          -0.006633,
          -0.045197,
          -0.108138,
          0.003629,
          0.109977,
          -0.006315,
          -0.115843,
          -0.082426,
          -0.060939,
          0.063001,
          -0.011391,
          -0.045745,
          0.10242,
          0.057224,
          0.002685,
          0.003056,
          0.052201,
          0.193775,
          0.098785,
          -0.014879,
          0.115149,
          0.070665
        ],
        [
          0.083329,
          -0.063482,
          0.031794,
          -0.070825,
          0.021623,
          -0.033999,
          0.073791,
          -0.0523,
          -0.04903,
          -0.045655,
          0.021786,
          -0.090981,
          -0.108816,
          0.058985,
          0.043836,
          0.052371,
          -0.088261,
          -0.088469,
          0.076054,
          0.038058,
          -0.088404,
          -0.078068,
          0.110831,
          -0.061927,
          0.085879,
          0.003481,
          0.082873,
          0.04504,
          0.033299,
          -0.168524,
          0.020978,
          0.049046,
          0.028087,
          0.001913,
          0.114088,
          0.06632,
          -0.062282,
          -0.044202,
          0.033076,
          0.083962,
          0.03522,
          -0.123418,
          -0.05244,
          -0.084596,
          0.030829,
          0.072228,
          -0.064726,
          0.090177,
          -0.087235,
          0.092932,
          -0.068338,
          0.094174,
          0.028505,
          0.003583,
          -0.092364,
          -0.058651,
          -0.063024,
          0.044778,
          0.02687,
          -0.003768,
          0.018065,
          -0.091099,
          -0.105777,
          -0.085547,
          -0.022213,
          -0.049585,
          -0.108688,
          -0.084592,
          0.089224,
          -0.059607,
          -0.021186,
          -0.094797,
          -0.04233,
          -0.049046,
          0.05579,
          0.074516,
          0.063946,
          -0.091713,
          0.054939,
          -0.036208,
          0.039051,
          0.055094,
          -0.0028,
          -0.017161,
          0.121321,
          0.115118,
          -0.027082,
          0.056274,
          -0.086278,
          0.067566,
          -0.067934,
          0.021684,
          -0.045041,
          0.02476,
          0.002876,
          -0.056437,
          -0.066409,
          -0.008047,
          0.014335,
          -0.032004,
          0.113332,
          -0.008032,
          0.017445,
          -0.084183,
          0.073363,
          -0.078567
        ],
        [
          0.003791,
          -0.017157,
          -0.089418,
          0.00705,
          0.119789,
          0.113281,
          0.034355,
          -0.07269,
          0.071202,
          -0.111141,
          -0.085749,
          0.011758,
          0.013021,
          0.076518,
          0.009808,
          0.061458,
          0.127109,
          0.038794,
          -0.158174,
          0.044222,
          0.001017,
          -0.039158,
          0.047502,
          0.089877,
          0.047763,
          0.065923,
          -0.078608,
          -0.05743,
          0.089735,
          0.088073,
          0.043598,
          -0.06762,
          0.008776,
          0.148299,
          -0.017531,
          -0.084173,
          0.124756,
          0.063313,
          -0.116988,
          0.044807,
          -0.028137,
          -0.08297,
          0.005733,
          0.046742,
          0.026353,
